#pragma once
#include <cstdarg>
namespace Eloquent {
    namespace ML {
        namespace Port {
            class SVMLinearModel {
                public:
                    /**
                    * Predict class for features vector
                    */
                    int predict(float *x) {
                        float votes[4] = { -1.231636326453 ,-1.104319780514 ,-1.009685697785 ,-4.460809606635  };
                        votes[0] += dot(x,   -1.165790338316  , 0.160812233516  , -2.049146996661  , -0.026908731989  , -1.062194177655  , 0.416971717693  , 1.483999162965  , 0.711964036771  , -0.744005591857  , 1.315530019983  , 0.014476170081  , 2.144824094617  , 1.929277462515  , -1.213730672013  , 2.214473155578  , -0.013871200584  , 0.61939138641  , -0.006135475699  , -0.069660188884  , -0.342600034954  , 0.035739002191  , 0.841635694095  , -0.314052456069  , -0.031104850955  , -0.57707264362  , 0.030595395722  , 0.840218932499  , -0.0658314752  , -0.083064130772  , -0.46705690822  , -3.671214119805  , -0.250576360506 );
                        votes[1] += dot(x,   -0.65790396171  , -0.204372279232  , -0.173789320465  , 0.164672789689  , -0.838493957597  , -0.108041114654  , -1.022688091864  , -0.249581843648  , 0.566256612056  , -0.182192526936  , -0.062860517214  , -1.131690362751  , -1.900543348033  , 1.248731237788  , -0.758894287129  , -0.053096305299  , 0.134708389741  , -0.015417171067  , 0.266018518522  , 0.13060352283  , 0.001141255484  , 0.250081926021  , -0.08954341379  , 0.013541028315  , 0.156338621318  , 0.010829911377  , 0.131575749069  , 0.063844427348  , -0.03885688626  , 0.254121914917  , 0.414997360778  , -0.544836041192 );
                        votes[2] += dot(x,   4.596259965635  , -0.4381143148  , 0.222868242842  , -0.017594744286  , 4.717428074291  , -0.195293719618  , -0.066758775138  , -0.532736870981  , 0.210775064333  , -0.382413990915  , 0.186251751453  , 0.086996156009  , 0.254699447753  , -0.400550860524  , -1.219588754657  , 0.006048696864  , 0.815744104759  , 0.001618500934  , -0.011534170903  , -0.507082142783  , -0.011484384918  , 1.435362509437  , -0.061195481567  , 0.120507038594  , -0.991136618323  , 0.026635027222  , 0.98662762911  , -0.135328814254  , -0.018038009193  , -0.588389645904  , 1.439553788744  , -0.256076824472 );
                        votes[3] += dot(x,   -0.063880659357  , 0.151311952926  , 0.002338984106  , 0.11190976601  , 0.011149316699  , 0.411607675518  , -4.568643604993  , 0.160863908462  , -1.407464411379  , 0.836856427339  , -0.989658941321  , -2.378822113908  , -0.78638712073  , 0.977902251986  , 1.234688705797  , 0.057177705231  , -0.514324712505  , -0.132810566309  , -0.000443469312  , 0.232593431645  , -0.034214237729  , -1.13813314008  , -0.028269775748  , -0.130374122792  , 0.729509682279  , -0.040515111599  , -0.614601584469  , 0.130369658115  , 0.197333519406  , 0.297532792476  , -0.883945457319  , 0.320894998086 );
                        // return argmax of votes
                        uint8_t classIdx = 0;
                        float maxVotes = votes[0];

                        for (uint8_t i = 1; i < 4; i++) {
                            if (votes[i] > maxVotes) {
                                classIdx = i;
                                maxVotes = votes[i];
                            }
                        }

                        return classIdx;
                    }

                    /**
                    * Predict readable class name
                    */
                    const char* predictLabel(float *x) {
                        return idxToLabel(predict(x));
                    }

                    /**
                    * Convert class idx to readable name
                    */
                    const char* idxToLabel(uint8_t classIdx) {
                        switch (classIdx) {
                            case 0:
                            return "CIRCULO";
                            case 1:
                            return "DEFAULT";
                            case 2:
                            return "LADO";
                            case 3:
                            return "QUIETO";
                            default:
                            return "Houston we have a problem";
                        }
                    }

                protected:
                    /**
                    * Compute dot product
                    */
                    float dot(float *x, ...) {
                        va_list w;
                        va_start(w, 32);
                        float dot = 0.0;

                        for (uint16_t i = 0; i < 32; i++) {
                            const float wi = va_arg(w, double);
                            dot += x[i] * wi;
                        }

                        return dot;
                    }
                };
            }
        }
    }